digraph Tree {
node [shape=box, style="filled, rounded", color="black", fontname=helvetica] ;
edge [fontname=helvetica] ;
0 [label="X[2] <= 10.7331\ngini = 0.4673\nsamples = 43\nvalue = [16, 27]\nclass = Ma strategie de dribble", fillcolor="#399de568"] ;
1 [label="gini = 0.0\nsamples = 3\nvalue = [3, 0]\nclass = Ma Strategie d'attaque", fillcolor="#e58139ff"] ;
0 -> 1 [labeldistance=2.5, labelangle=45, headlabel="True"] ;
2 [label="X[0] <= 33.7031\ngini = 0.4387\nsamples = 40\nvalue = [13, 27]\nclass = Ma strategie de dribble", fillcolor="#399de584"] ;
0 -> 2 [labeldistance=2.5, labelangle=-45, headlabel="False"] ;
3 [label="X[0] <= 23.9376\ngini = 0.4114\nsamples = 38\nvalue = [11, 27]\nclass = Ma strategie de dribble", fillcolor="#399de597"] ;
2 -> 3 ;
4 [label="X[1] <= 49.2921\ngini = 0.477\nsamples = 28\nvalue = [11, 17]\nclass = Ma strategie de dribble", fillcolor="#399de55a"] ;
3 -> 4 ;
5 [label="gini = 0.0\nsamples = 5\nvalue = [0, 5]\nclass = Ma strategie de dribble", fillcolor="#399de5ff"] ;
4 -> 5 ;
6 [label="X[2] <= 56.3902\ngini = 0.4991\nsamples = 23\nvalue = [11, 12]\nclass = Ma strategie de dribble", fillcolor="#399de515"] ;
4 -> 6 ;
7 [label="gini = 0.0\nsamples = 4\nvalue = [4, 0]\nclass = Ma Strategie d'attaque", fillcolor="#e58139ff"] ;
6 -> 7 ;
8 [label="X[2] <= 80.1913\ngini = 0.4654\nsamples = 19\nvalue = [7, 12]\nclass = Ma strategie de dribble", fillcolor="#399de56a"] ;
6 -> 8 ;
9 [label="X[0] <= 15.423\ngini = 0.4978\nsamples = 15\nvalue = [7, 8]\nclass = Ma strategie de dribble", fillcolor="#399de520"] ;
8 -> 9 ;
10 [label="X[1] <= 67.5615\ngini = 0.4444\nsamples = 9\nvalue = [6, 3]\nclass = Ma Strategie d'attaque", fillcolor="#e581397f"] ;
9 -> 10 ;
11 [label="gini = 0.0\nsamples = 3\nvalue = [0, 3]\nclass = Ma strategie de dribble", fillcolor="#399de5ff"] ;
10 -> 11 ;
12 [label="gini = 0.0\nsamples = 6\nvalue = [6, 0]\nclass = Ma Strategie d'attaque", fillcolor="#e58139ff"] ;
10 -> 12 ;
13 [label="X[1] <= 91.127\ngini = 0.2778\nsamples = 6\nvalue = [1, 5]\nclass = Ma strategie de dribble", fillcolor="#399de5cc"] ;
9 -> 13 ;
14 [label="gini = 0.0\nsamples = 4\nvalue = [0, 4]\nclass = Ma strategie de dribble", fillcolor="#399de5ff"] ;
13 -> 14 ;
15 [label="gini = 0.5\nsamples = 2\nvalue = [1, 1]\nclass = Ma Strategie d'attaque", fillcolor="#e5813900"] ;
13 -> 15 ;
16 [label="gini = 0.0\nsamples = 4\nvalue = [0, 4]\nclass = Ma strategie de dribble", fillcolor="#399de5ff"] ;
8 -> 16 ;
17 [label="gini = 0.0\nsamples = 10\nvalue = [0, 10]\nclass = Ma strategie de dribble", fillcolor="#399de5ff"] ;
3 -> 17 ;
18 [label="gini = 0.0\nsamples = 2\nvalue = [2, 0]\nclass = Ma Strategie d'attaque", fillcolor="#e58139ff"] ;
2 -> 18 ;
}